Language model created by QuickLM on Thu Feb  2 13:16:16 EST 2012
Copyright (c) 1996-2010 Carnegie Mellon University and Alexander I. Rudnicky

The model is in standard ARPA format, designed by Doug Paul while he was at MITRE.

The code that was used to produce this language model is available in Open Source.
Please visit http://www.speech.cs.cmu.edu/tools/ for more information

The (fixed) discount mass is 0.5. The backoffs are computed using the ratio method.
This model based on a corpus of 26 sentences and 37 words

\data\
ngram 1=37
ngram 2=62
ngram 3=42

\1-grams:
-0.8638 </s> -0.3010
-0.8638 <s> -0.2264
-2.2788 BAD -0.2964
-2.2788 BEER -0.2371
-2.2788 BREAK -0.2371
-2.2788 COKE -0.2371
-2.2788 COLA -0.2371
-2.2788 COULD -0.2964
-2.2788 DELICIOUS -0.2371
-2.2788 DRINK -0.2371
-2.2788 EVA -0.2987
-2.2788 FANTA -0.2371
-2.2788 FETCH -0.2918
-1.9777 GET -0.2964
-2.2788 GIVE -0.2371
-2.2788 GO -0.2987
-2.2788 GOOD -0.2964
-2.2788 GOT -0.2987
-2.2788 GREAT -0.2371
-2.2788 IT -0.2371
-1.6767 JUICE -0.2371
-2.2788 JUICE? -0.2371
-2.2788 NICE -0.2371
-2.2788 NOT -0.2371
-2.2788 PLEASE -0.2964
-2.2788 RETRIEVE -0.2918
-1.9777 ROBOT -0.2371
-2.2788 SLEEP -0.2371
-1.9777 STOP -0.2371
-2.2788 THANK -0.2964
-2.2788 THANKS -0.2371
-1.9777 THE -0.2894
-2.2788 TO -0.2987
-2.2788 UP -0.2371
-2.2788 WAKE -0.2987
-1.9777 YOU -0.2345
-2.2788 YUMMY -0.2371

\2-grams:
-1.7160 <s> BAD 0.0000
-1.7160 <s> BEER 0.0000
-1.7160 <s> BREAK 0.0000
-1.7160 <s> COKE 0.0000
-1.7160 <s> COLA 0.0000
-1.7160 <s> COULD 0.0000
-1.7160 <s> DELICIOUS 0.0000
-1.7160 <s> DRINK 0.0000
-1.7160 <s> EVA 0.0000
-1.7160 <s> FANTA 0.0000
-1.7160 <s> FETCH 0.0000
-1.7160 <s> GET 0.0000
-1.7160 <s> GIVE 0.0000
-1.7160 <s> GO 0.0000
-1.7160 <s> GOOD 0.0000
-1.7160 <s> GOT 0.0000
-1.7160 <s> GREAT 0.0000
-1.7160 <s> JUICE 0.0000
-1.7160 <s> NICE 0.0000
-1.7160 <s> NOT 0.0000
-1.7160 <s> RETRIEVE 0.0000
-1.4150 <s> STOP 0.0000
-1.7160 <s> THANK 0.0000
-1.7160 <s> THANKS 0.0000
-1.7160 <s> YUMMY 0.0000
-0.3010 BAD ROBOT 0.0000
-0.3010 BEER </s> -0.3010
-0.3010 BREAK </s> -0.3010
-0.3010 COKE </s> -0.3010
-0.3010 COLA </s> -0.3010
-0.3010 COULD YOU -0.1761
-0.3010 DELICIOUS </s> -0.3010
-0.3010 DRINK </s> -0.3010
-0.3010 EVA WAKE 0.0000
-0.3010 FANTA </s> -0.3010
-0.3010 FETCH JUICE 0.0000
-0.3010 GET THE 0.0000
-0.3010 GIVE </s> -0.3010
-0.3010 GO TO 0.0000
-0.3010 GOOD ROBOT 0.0000
-0.3010 GOT IT 0.0000
-0.3010 GREAT </s> -0.3010
-0.3010 IT </s> -0.3010
-0.3010 JUICE </s> -0.3010
-0.3010 JUICE? </s> -0.3010
-0.3010 NICE </s> -0.3010
-0.3010 NOT </s> -0.3010
-0.3010 PLEASE GET 0.0000
-0.3010 RETRIEVE JUICE 0.0000
-0.3010 ROBOT </s> -0.3010
-0.3010 SLEEP </s> -0.3010
-0.3010 STOP </s> -0.3010
-0.3010 THANK YOU -0.1761
-0.3010 THANKS </s> -0.3010
-0.6021 THE JUICE 0.0000
-0.6021 THE JUICE? 0.0000
-0.3010 TO SLEEP 0.0000
-0.3010 UP </s> -0.3010
-0.3010 WAKE UP 0.0000
-0.6021 YOU </s> -0.3010
-0.6021 YOU PLEASE 0.0000
-0.3010 YUMMY </s> -0.3010

\3-grams:
-0.3010 <s> BAD ROBOT
-0.3010 <s> BEER </s>
-0.3010 <s> BREAK </s>
-0.3010 <s> COKE </s>
-0.3010 <s> COLA </s>
-0.3010 <s> COULD YOU
-0.3010 <s> DELICIOUS </s>
-0.3010 <s> DRINK </s>
-0.3010 <s> EVA WAKE
-0.3010 <s> FANTA </s>
-0.3010 <s> FETCH JUICE
-0.3010 <s> GET THE
-0.3010 <s> GIVE </s>
-0.3010 <s> GO TO
-0.3010 <s> GOOD ROBOT
-0.3010 <s> GOT IT
-0.3010 <s> GREAT </s>
-0.3010 <s> JUICE </s>
-0.3010 <s> NICE </s>
-0.3010 <s> NOT </s>
-0.3010 <s> RETRIEVE JUICE
-0.3010 <s> STOP </s>
-0.3010 <s> THANK YOU
-0.3010 <s> THANKS </s>
-0.3010 <s> YUMMY </s>
-0.3010 BAD ROBOT </s>
-0.3010 COULD YOU PLEASE
-0.3010 EVA WAKE UP
-0.3010 FETCH JUICE </s>
-0.6021 GET THE JUICE
-0.6021 GET THE JUICE?
-0.3010 GO TO SLEEP
-0.3010 GOOD ROBOT </s>
-0.3010 GOT IT </s>
-0.3010 PLEASE GET THE
-0.3010 RETRIEVE JUICE </s>
-0.3010 THANK YOU </s>
-0.3010 THE JUICE </s>
-0.3010 THE JUICE? </s>
-0.3010 TO SLEEP </s>
-0.3010 WAKE UP </s>
-0.3010 YOU PLEASE GET

\end\
