Language model created by QuickLM on Mon Jan 30 07:40:02 EST 2012
Copyright (c) 1996-2010 Carnegie Mellon University and Alexander I. Rudnicky

The model is in standard ARPA format, designed by Doug Paul while he was at MITRE.

The code that was used to produce this language model is available in Open Source.
Please visit http://www.speech.cs.cmu.edu/tools/ for more information

The (fixed) discount mass is 0.5. The backoffs are computed using the ratio method.
This model based on a corpus of 25 sentences and 35 words

\data\
ngram 1=35
ngram 2=59
ngram 3=40

\1-grams:
-0.8621 </s> -0.3010
-0.8621 <s> -0.2257
-2.2601 BAD -0.2962
-2.2601 BEER -0.2369
-2.2601 COKE -0.2369
-2.2601 COLA -0.2369
-2.2601 COULD -0.2962
-2.2601 DELICIOUS -0.2369
-2.2601 DRINK -0.2369
-2.2601 EVA -0.2986
-2.2601 FANTA -0.2369
-2.2601 FETCH -0.2914
-1.9590 GET -0.2962
-2.2601 GIVE -0.2369
-2.2601 GO -0.2986
-2.2601 GOOD -0.2962
-2.2601 GREAT -0.2369
-1.6580 JUICE -0.2369
-2.2601 JUICE? -0.2369
-2.2601 NICE -0.2369
-2.2601 NOT -0.2369
-2.2601 OPEN -0.2369
-2.2601 PLEASE -0.2962
-2.2601 RETRIEVE -0.2914
-1.9590 ROBOT -0.2369
-2.2601 SLEEP -0.2369
-1.9590 STOP -0.2369
-2.2601 THANK -0.2962
-2.2601 THANKS -0.2369
-1.9590 THE -0.2889
-2.2601 TO -0.2986
-2.2601 UP -0.2369
-2.2601 WAKE -0.2986
-1.9590 YOU -0.2341
-2.2601 YUMMY -0.2369

\2-grams:
-1.6990 <s> BAD 0.0000
-1.6990 <s> BEER 0.0000
-1.6990 <s> COKE 0.0000
-1.6990 <s> COLA 0.0000
-1.6990 <s> COULD 0.0000
-1.6990 <s> DELICIOUS 0.0000
-1.6990 <s> DRINK 0.0000
-1.6990 <s> EVA 0.0000
-1.6990 <s> FANTA 0.0000
-1.6990 <s> FETCH 0.0000
-1.6990 <s> GET 0.0000
-1.6990 <s> GIVE 0.0000
-1.6990 <s> GO 0.0000
-1.6990 <s> GOOD 0.0000
-1.6990 <s> GREAT 0.0000
-1.6990 <s> JUICE 0.0000
-1.6990 <s> NICE 0.0000
-1.6990 <s> NOT 0.0000
-1.6990 <s> OPEN 0.0000
-1.6990 <s> RETRIEVE 0.0000
-1.3979 <s> STOP 0.0000
-1.6990 <s> THANK 0.0000
-1.6990 <s> THANKS 0.0000
-1.6990 <s> YUMMY 0.0000
-0.3010 BAD ROBOT 0.0000
-0.3010 BEER </s> -0.3010
-0.3010 COKE </s> -0.3010
-0.3010 COLA </s> -0.3010
-0.3010 COULD YOU -0.1761
-0.3010 DELICIOUS </s> -0.3010
-0.3010 DRINK </s> -0.3010
-0.3010 EVA WAKE 0.0000
-0.3010 FANTA </s> -0.3010
-0.3010 FETCH JUICE 0.0000
-0.3010 GET THE 0.0000
-0.3010 GIVE </s> -0.3010
-0.3010 GO TO 0.0000
-0.3010 GOOD ROBOT 0.0000
-0.3010 GREAT </s> -0.3010
-0.3010 JUICE </s> -0.3010
-0.3010 JUICE? </s> -0.3010
-0.3010 NICE </s> -0.3010
-0.3010 NOT </s> -0.3010
-0.3010 OPEN </s> -0.3010
-0.3010 PLEASE GET 0.0000
-0.3010 RETRIEVE JUICE 0.0000
-0.3010 ROBOT </s> -0.3010
-0.3010 SLEEP </s> -0.3010
-0.3010 STOP </s> -0.3010
-0.3010 THANK YOU -0.1761
-0.3010 THANKS </s> -0.3010
-0.6021 THE JUICE 0.0000
-0.6021 THE JUICE? 0.0000
-0.3010 TO SLEEP 0.0000
-0.3010 UP </s> -0.3010
-0.3010 WAKE UP 0.0000
-0.6021 YOU </s> -0.3010
-0.6021 YOU PLEASE 0.0000
-0.3010 YUMMY </s> -0.3010

\3-grams:
-0.3010 <s> BAD ROBOT
-0.3010 <s> BEER </s>
-0.3010 <s> COKE </s>
-0.3010 <s> COLA </s>
-0.3010 <s> COULD YOU
-0.3010 <s> DELICIOUS </s>
-0.3010 <s> DRINK </s>
-0.3010 <s> EVA WAKE
-0.3010 <s> FANTA </s>
-0.3010 <s> FETCH JUICE
-0.3010 <s> GET THE
-0.3010 <s> GIVE </s>
-0.3010 <s> GO TO
-0.3010 <s> GOOD ROBOT
-0.3010 <s> GREAT </s>
-0.3010 <s> JUICE </s>
-0.3010 <s> NICE </s>
-0.3010 <s> NOT </s>
-0.3010 <s> OPEN </s>
-0.3010 <s> RETRIEVE JUICE
-0.3010 <s> STOP </s>
-0.3010 <s> THANK YOU
-0.3010 <s> THANKS </s>
-0.3010 <s> YUMMY </s>
-0.3010 BAD ROBOT </s>
-0.3010 COULD YOU PLEASE
-0.3010 EVA WAKE UP
-0.3010 FETCH JUICE </s>
-0.6021 GET THE JUICE
-0.6021 GET THE JUICE?
-0.3010 GO TO SLEEP
-0.3010 GOOD ROBOT </s>
-0.3010 PLEASE GET THE
-0.3010 RETRIEVE JUICE </s>
-0.3010 THANK YOU </s>
-0.3010 THE JUICE </s>
-0.3010 THE JUICE? </s>
-0.3010 TO SLEEP </s>
-0.3010 WAKE UP </s>
-0.3010 YOU PLEASE GET

\end\
