Language model created by QuickLM on Fri Jan 27 08:07:45 EST 2012
Copyright (c) 1996-2010 Carnegie Mellon University and Alexander I. Rudnicky

The model is in standard ARPA format, designed by Doug Paul while he was at MITRE.

The code that was used to produce this language model is available in Open Source.
Please visit http://www.speech.cs.cmu.edu/tools/ for more information

The (fixed) discount mass is 0.5. The backoffs are computed using the ratio method.
This model based on a corpus of 22 sentences and 33 words

\data\
ngram 1=33
ngram 2=55
ngram 3=38

\1-grams:
-0.8724 </s> -0.3010
-0.8724 <s> -0.2261
-2.2148 BAD -0.2957
-2.2148 BEER -0.2385
-2.2148 COKE -0.2385
-2.2148 COLA -0.2385
-2.2148 COULD -0.2957
-2.2148 DELICIOUS -0.2385
-2.2148 DRINK -0.2385
-2.2148 EVA -0.2984
-2.2148 FETCH -0.2903
-1.9138 GET -0.2957
-2.2148 GO -0.2984
-2.2148 GOOD -0.2957
-2.2148 GREAT -0.2385
-1.6128 JUICE -0.2385
-2.2148 JUICE? -0.2385
-2.2148 NICE -0.2385
-2.2148 NOT -0.2385
-2.2148 PLEASE -0.2957
-2.2148 RELEASE -0.2385
-2.2148 RETRIEVE -0.2903
-1.9138 ROBOT -0.2385
-2.2148 SLEEP -0.2385
-2.2148 STOP -0.2385
-2.2148 THANK -0.2957
-2.2148 THANKS -0.2385
-1.9138 THE -0.2876
-2.2148 TO -0.2984
-2.2148 UP -0.2385
-2.2148 WAKE -0.2984
-1.9138 YOU -0.2354
-2.2148 YUMMY -0.2385

\2-grams:
-1.6435 <s> BAD 0.0000
-1.6435 <s> BEER 0.0000
-1.6435 <s> COKE 0.0000
-1.6435 <s> COLA 0.0000
-1.6435 <s> COULD 0.0000
-1.6435 <s> DELICIOUS 0.0000
-1.6435 <s> DRINK 0.0000
-1.6435 <s> EVA 0.0000
-1.6435 <s> FETCH 0.0000
-1.6435 <s> GET 0.0000
-1.6435 <s> GO 0.0000
-1.6435 <s> GOOD 0.0000
-1.6435 <s> GREAT 0.0000
-1.6435 <s> JUICE 0.0000
-1.6435 <s> NICE 0.0000
-1.6435 <s> NOT 0.0000
-1.6435 <s> RELEASE 0.0000
-1.6435 <s> RETRIEVE 0.0000
-1.6435 <s> STOP 0.0000
-1.6435 <s> THANK 0.0000
-1.6435 <s> THANKS 0.0000
-1.6435 <s> YUMMY 0.0000
-0.3010 BAD ROBOT 0.0000
-0.3010 BEER </s> -0.3010
-0.3010 COKE </s> -0.3010
-0.3010 COLA </s> -0.3010
-0.3010 COULD YOU -0.1761
-0.3010 DELICIOUS </s> -0.3010
-0.3010 DRINK </s> -0.3010
-0.3010 EVA WAKE 0.0000
-0.3010 FETCH JUICE 0.0000
-0.3010 GET THE 0.0000
-0.3010 GO TO 0.0000
-0.3010 GOOD ROBOT 0.0000
-0.3010 GREAT </s> -0.3010
-0.3010 JUICE </s> -0.3010
-0.3010 JUICE? </s> -0.3010
-0.3010 NICE </s> -0.3010
-0.3010 NOT </s> -0.3010
-0.3010 PLEASE GET 0.0000
-0.3010 RELEASE </s> -0.3010
-0.3010 RETRIEVE JUICE 0.0000
-0.3010 ROBOT </s> -0.3010
-0.3010 SLEEP </s> -0.3010
-0.3010 STOP </s> -0.3010
-0.3010 THANK YOU -0.1761
-0.3010 THANKS </s> -0.3010
-0.6021 THE JUICE 0.0000
-0.6021 THE JUICE? 0.0000
-0.3010 TO SLEEP 0.0000
-0.3010 UP </s> -0.3010
-0.3010 WAKE UP 0.0000
-0.6021 YOU </s> -0.3010
-0.6021 YOU PLEASE 0.0000
-0.3010 YUMMY </s> -0.3010

\3-grams:
-0.3010 <s> BAD ROBOT
-0.3010 <s> BEER </s>
-0.3010 <s> COKE </s>
-0.3010 <s> COLA </s>
-0.3010 <s> COULD YOU
-0.3010 <s> DELICIOUS </s>
-0.3010 <s> DRINK </s>
-0.3010 <s> EVA WAKE
-0.3010 <s> FETCH JUICE
-0.3010 <s> GET THE
-0.3010 <s> GO TO
-0.3010 <s> GOOD ROBOT
-0.3010 <s> GREAT </s>
-0.3010 <s> JUICE </s>
-0.3010 <s> NICE </s>
-0.3010 <s> NOT </s>
-0.3010 <s> RELEASE </s>
-0.3010 <s> RETRIEVE JUICE
-0.3010 <s> STOP </s>
-0.3010 <s> THANK YOU
-0.3010 <s> THANKS </s>
-0.3010 <s> YUMMY </s>
-0.3010 BAD ROBOT </s>
-0.3010 COULD YOU PLEASE
-0.3010 EVA WAKE UP
-0.3010 FETCH JUICE </s>
-0.6021 GET THE JUICE
-0.6021 GET THE JUICE?
-0.3010 GO TO SLEEP
-0.3010 GOOD ROBOT </s>
-0.3010 PLEASE GET THE
-0.3010 RETRIEVE JUICE </s>
-0.3010 THANK YOU </s>
-0.3010 THE JUICE </s>
-0.3010 THE JUICE? </s>
-0.3010 TO SLEEP </s>
-0.3010 WAKE UP </s>
-0.3010 YOU PLEASE GET

\end\
